[{"Inputs":[0.004417670890688896,0.042971886694431305,0.03413654491305351,0.09839357435703278,0.10000000149011612,0.09919678419828415,0.02128514088690281,0.0803212821483612,0.048995982855558395,0.09718875586986542,0.08995983749628067,0.0072289155796170235,0.05622490122914314,0.04979919642210007,0.053012046962976456],"arrInputWeight":[[0.8616620302200317],[1.0056911706924438],[0.9681671857833862],[0.04847239702939987],[0.947641909122467],[0.5088534355163574],[0.5675998330116272],[0.12267425656318665],[0.00886671245098114],[0.25227606296539307],[0.49060913920402527],[0.1699749082326889],[0.27258968353271484],[0.8059849143028259],[0.4188222289085388]],"matrixHiddenWeight":[[[0.26663362979888916]],[[0.8842604160308838]],[[0.6498884558677673]],[[0.6282396912574768]],[[0.6525529026985168]],[[0.8753439784049988]],[[0.6465426087379456]],[[0.3185020685195923]],[[0.054204098880290985]],[[0.4190934896469116]],[[0.30654069781303406]],[[0.451323539018631]],[[0.6832348704338074]],[[0.8969195485115051]],[[0.2599291205406189]]],"Bias":0,"Activation":"sigmoid","hiddenLayers":1,"dense":false,"divMulI":2490,"divMulO":1},{"Inputs":[0.005668016150593758,0.04251012206077576,0.04372469708323479,0.09878542274236679,0.10000000149011612,0.09959514439105988,0.09433198720216751,0.08421052992343903,0.013360324315726757,0.04048582911491394,0.0829959511756897,0.06558704376220703,0.05020242929458618,0.046963561326265335,0.029149796813726425],"arrInputWeight":[[0.6828768849372864],[0.22385449707508087],[0.7541079521179199],[0.9793254137039185],[0.09025362133979797],[0.589739203453064],[0.6037668585777283],[0.11096852272748947],[0.7786807417869568],[0.034581318497657776],[0.24450157582759857],[0.6955661773681641],[0.5834289193153381],[0.5569390654563904],[0.7584164142608643]],"matrixHiddenWeight":[[[0.6038978099822998]],[[0.019542736932635307]],[[0.585076093673706]],[[0.8821824789047241]],[[0.47080063819885254]],[[0.11272375285625458]],[[0.4774644374847412]],[[0.13336552679538727]],[[0.2681214213371277]],[[0.9123926758766174]],[[0.4870884120464325]],[[0.2451997697353363]],[[0.8392871022224426]],[[0.4533361494541168]],[[0.7252113223075867]]],"Bias":0,"Activation":"sigmoid","hiddenLayers":1,"dense":false,"divMulI":2470,"divMulO":1},{"Inputs":[0.025498008355498314,0.06334661692380905,0.03784860670566559,0.10000000149011612,0.10000000149011612,0.10000000149011612,0.05816733092069626,0.07808765023946762,0.05896414443850517,0.05896414443850517,0.07848605513572693,0.04262948036193848,0.05258964002132416,0.050199203193187714,0.055776894092559814],"arrInputWeight":[[0.06088731065392494],[0.34585273265838623],[0.09732158482074738],[0.13425977528095245],[0.9194293022155762],[0.226567342877388],[0.29387277364730835],[0.6732490062713623],[0.3464474081993103],[0.42426005005836487],[0.4299775958061218],[0.4753872752189636],[0.7459370493888855],[0.2697001099586487],[0.7376499176025391]],"matrixHiddenWeight":[[[0.1478971391916275]],[[0.5504810810089111]],[[0.5021900534629822]],[[0.2109893560409546]],[[0.6747443079948425]],[[0.5988494753837585]],[[0.5852273106575012]],[[0.6090894937515259]],[[0.8468398451805115]],[[0.9484991431236267]],[[0.6827257871627808]],[[0.8985686898231506]],[[0.6562592387199402]],[[0.22000597417354584]],[[0.7451795935630798]]],"Bias":0,"Activation":"sigmoid","hiddenLayers":1,"dense":false,"divMulI":2510,"divMulO":1},{"Inputs":[0.09960159659385681,0.10000000149011612,0.09960159659385681,0.03027888387441635,0.052988048642873764,0.03625497967004776,0.06215139478445053,0.07768924534320831,0.05976095795631409,0.057370517402887344,0.07091633230447769,0.04661354422569275,0.05258964002132416,0.05258964002132416,0.05896414443850517],"arrInputWeight":[[0.945505678653717],[0.3825800120830536],[0.5844917893409729],[0.1166510283946991],[0.5622325539588928],[0.22832061350345612],[0.3832058906555176],[0.44916749000549316],[0.5321149230003357],[0.5116509795188904],[0.20572805404663086],[0.1557229906320572],[0.9297652244567871],[0.5784754753112793],[0.08970849215984344]],"matrixHiddenWeight":[[[0.7937204241752625]],[[0.3740966022014618]],[[0.30450233817100525]],[[0.9618657231330872]],[[0.7596739530563354]],[[0.6969782114028931]],[[0.021709322929382324]],[[0.2188957929611206]],[[0.5475699305534363]],[[0.8210794925689697]],[[0.12760958075523376]],[[0.7881396412849426]],[[0.460210382938385]],[[0.014176085591316223]],[[0.04811166226863861]]],"Bias":0,"Activation":"sigmoid","hiddenLayers":1,"dense":false,"divMulI":2510,"divMulO":1},{"Inputs":[0.007499999832361937,0.038333334028720856,0.03291666507720947,0.10000000149011612,0.10000000149011612,0.09833333641290665,0.023749999701976776,0.04833333194255829,0.07666666805744171,0.038750000298023224,0.0808333307504654,0.0637499988079071,0.06833333522081375,0.05166666582226753,0.004999999888241291],"arrInputWeight":[[0.49031591415405273],[0.9167604446411133],[0.9385311007499695],[0.9440823793411255],[0.5704106092453003],[0.36839574575424194],[0.8431071043014526],[0.4634680449962616],[0.9805995225906372],[0.34138059616088867],[0.18481439352035522],[0.38398510217666626],[0.28277137875556946],[0.6190004944801331],[0.9880651235580444]],"matrixHiddenWeight":[[[0.7017218470573425]],[[0.11663427203893661]],[[0.7596059441566467]],[[0.3646615147590637]],[[0.99202561378479]],[[0.47381556034088135]],[[0.765984833240509]],[[0.13779674470424652]],[[0.5776795148849487]],[[0.5061594843864441]],[[0.7777258157730103]],[[0.5475084781646729]],[[0.7557942867279053]],[[0.8713903427124023]],[[0.0844944417476654]]],"Bias":0,"Activation":"sigmoid","hiddenLayers":1,"dense":false,"divMulI":2400,"divMulO":1},{"Inputs":[0.014634146355092525,0.0585365854203701,0.060975611209869385,0.09837398678064346,0.10000000149011612,0.10000000149011612,0.09268292784690857,0.09146341681480408,0.007317073177546263,0.010569105856120586,0.03333333507180214,0.01504065003246069,0.053658537566661835,0.053658537566661835,0.05203251913189888],"arrInputWeight":[[0.830424964427948],[0.038104575127363205],[0.27573660016059875],[0.04140469431877136],[0.10532762855291367],[0.6599336266517639],[0.5060490965843201],[0.7826964855194092],[0.8910590410232544],[0.22622863948345184],[0.60666823387146],[0.020075630396604538],[0.41289493441581726],[0.2370923012495041],[0.4246104955673218]],"matrixHiddenWeight":[[[0.3908731937408447]],[[0.7747296094894409]],[[0.5049203634262085]],[[0.8083134293556213]],[[0.4846450984477997]],[[0.7047474384307861]],[[0.13285790383815765]],[[0.6685535907745361]],[[0.5156976580619812]],[[0.3458954393863678]],[[0.8586466312408447]],[[0.731116771697998]],[[0.32762742042541504]],[[0.4899594783782959]],[[0.7877389788627625]]],"Bias":0,"Activation":"sigmoid","hiddenLayers":1,"dense":false,"divMulI":2460,"divMulO":1},{"Inputs":[0.09960159659385681,0.10000000149011612,0.10000000149011612,0.019521912559866905,0.06135458126664162,0.03227091580629349,0.09402390569448471,0.08286852389574051,0.008366533555090427,0.023904383182525635,0.04541832581162453,0.07490039616823196,0.0494023896753788,0.04780876636505127,0.057370517402887344],"arrInputWeight":[[0.16352739930152893],[0.9551928043365479],[0.711828887462616],[0.8339497447013855],[0.6281664967536926],[0.7973585724830627],[0.5797611474990845],[0.24436770379543304],[0.09458453208208084],[0.10069052129983902],[0.8562606573104858],[0.5382724404335022],[0.6288546323776245],[0.44536885619163513],[0.15112367272377014]],"matrixHiddenWeight":[[[0.27589499950408936]],[[0.4117741286754608]],[[0.14780080318450928]],[[0.14659342169761658]],[[0.3611842691898346]],[[0.017840484157204628]],[[0.6087162494659424]],[[0.03531905636191368]],[[0.9240146279335022]],[[0.33353856205940247]],[[0.6265344023704529]],[[0.3554491698741913]],[[0.3345792293548584]],[[0.4743160605430603]],[[0.6705018877983093]]],"Bias":0,"Activation":"sigmoid","hiddenLayers":1,"dense":false,"divMulI":2510,"divMulO":1},{"Inputs":[0.09681817889213562,0.10000000149011612,0.09227272868156433,0.00863636378198862,0.03863636404275894,0.059545453637838364,0.0022727272007614374,0.06590908765792847,0.023636363446712494,0.04409090802073479,0.08090908825397491,0.06409090757369995,0.03681818023324013,0.06499999761581421,0.09545454382896423],"arrInputWeight":[[0.3330177962779999],[0.3358878791332245],[0.32355669140815735],[0.9281137585639954],[0.6902915835380554],[0.7439224123954773],[0.08866515010595322],[0.41541820764541626],[0.8772121667861938],[0.29358863830566406],[0.367923766374588],[0.6695954203605652],[0.47193223237991333],[0.3389045000076294],[0.912249743938446]],"matrixHiddenWeight":[[[0.1694909632205963]],[[0.6869649291038513]],[[0.6893199682235718]],[[0.6094273328781128]],[[0.5881845355033875]],[[0.7560979127883911]],[[0.22339579463005066]],[[0.08794689178466797]],[[0.8641298413276672]],[[0.7584752440452576]],[[0.444301575422287]],[[0.8472139239311218]],[[0.5993667840957642]],[[0.4110259711742401]],[[0.582218587398529]]],"Bias":0,"Activation":"sigmoid","hiddenLayers":1,"dense":false,"divMulI":2200,"divMulO":1},{"Inputs":[0.08442623168230057,0.006557377055287361,0.007786885369569063,0.10000000149011612,0.09877049177885056,0.09877049177885056,0.029098359867930412,0.013934426009654999,0.01024590153247118,0.0762295052409172,0.05409836024045944,0.055327869951725006,0.08606557548046112,0.06065573915839195,0.05409836024045944],"arrInputWeight":[[-1.0016982555389404],[0.4505515396595001],[0.009850036352872849],[-0.9247307181358337],[-0.6940131187438965],[-1.3869131803512573],[-0.28619688749313354],[0.10308508574962616],[0.3224862813949585],[-1.0676356554031372],[-0.19739410281181335],[-0.6232014298439026],[-0.9971112012863159],[-0.23425588011741638],[-0.5244461894035339]],"matrixHiddenWeight":[[[-1.2609180212020874],[-1.260851263999939]],[[0.02480839565396309],[0.32926949858665466]],[[0.8217145204544067],[0.7291019558906555]],[[-1.1947146654129028],[-0.8521543741226196]],[[-1.0832858085632324],[-0.9779635667800903]],[[-1.1146528720855713],[-1.2688336372375488]],[[0.11897388845682144],[-0.24448764324188232]],[[-0.12964002788066864],[0.07916784286499023]],[[0.506064772605896],[0.057376932352781296]],[[-0.7455503940582275],[-0.635826587677002]],[[-0.15211693942546844],[-0.7667725086212158]],[[-0.5418248772621155],[0.03266148641705513]],[[-0.7695974111557007],[-1.279300570487976]],[[-0.8677011728286743],[-0.7633566856384277]],[[0.12369902431964874],[-0.7060434818267822]]],"Bias":0,"Activation":"sigmoid","hiddenLayers":2,"dense":false,"divMulI":2440,"divMulO":1},{"Inputs":[0.07760000228881836,0.015599999576807022,0.01600000075995922,0.10000000149011612,0.10000000149011612,0.10000000149011612,0.07959999889135361,0.06319999694824219,0.06360000371932983,0.052799999713897705,0.053199999034404755,0.052799999713897705,0.07559999823570251,0.04960000142455101,0.04639999940991402],"arrInputWeight":[[-1.2496144771575928],[-0.13646169006824493],[0.6309666633605957],[-1.4678945541381836],[-1.1981287002563477],[-0.8089321255683899],[-0.6893547773361206],[-0.6285185217857361],[-1.01625394821167],[-0.5661493539810181],[-0.5733842849731445],[-0.6726157665252686],[-0.48593688011169434],[0.05854475870728493],[-0.47152671217918396]],"matrixHiddenWeight":[[[-1.1428219079971313],[-0.3749319911003113]],[[-0.18494483828544617],[0.3235272467136383]],[[0.522242546081543],[0.4164569675922394]],[[-1.5489543676376343],[-0.6935483813285828]],[[-1.180158257484436],[-1.3045169115066528]],[[-1.2788461446762085],[-0.7508009076118469]],[[-0.9296549558639526],[-0.5611206293106079]],[[-0.5974369049072266],[-0.556352972984314]],[[-0.30655235052108765],[-0.7788611650466919]],[[-0.5439531207084656],[0.09375961124897003]],[[-0.08540275692939758],[-0.08167985081672668]],[[-0.4091671407222748],[-0.563078761100769]],[[-0.8720687031745911],[-0.8214613795280457]],[[-0.48906275629997253],[0.1093403548002243]],[[-0.5726463794708252],[-0.7417915463447571]]],"Bias":0,"Activation":"sigmoid","hiddenLayers":2,"dense":false,"divMulI":2500,"divMulO":1},{"Inputs":[0.10000000149011612,0.09918699413537979,0.09918699413537979,0.05487804859876633,0.01300812978297472,0.014227642677724361,0.07032520323991776,0.05121951177716255,0.04552845656871796,0.050406504422426224,0.050406504422426224,0.050406504422426224,0.08821137994527817,0.04715447127819061,0.056910570710897446],"arrInputWeight":[[-1.0239752531051636],[-1.159824252128601],[-1.1668603420257568],[-1.0006444454193115],[0.46309328079223633],[-0.2557521164417267],[-0.29315733909606934],[-0.3300582766532898],[-0.301275372505188],[-0.5608196258544922],[-0.22061662375926971],[-0.09094972163438797],[-0.8043093681335449],[-0.3913595676422119],[-0.9570958614349365]],"matrixHiddenWeight":[[[-1.5053855180740356],[-1.2671213150024414]],[[-0.9781240224838257],[-0.9659691452980042]],[[-1.556087851524353],[-1.0388778448104858]],[[-0.1088198721408844],[-0.413402259349823]],[[-0.227117657661438],[0.3407941460609436]],[[0.6045555472373962],[-0.19664040207862854]],[[-0.9294055104255676],[-0.7804800271987915]],[[-0.6542848944664001],[-0.4174291491508484]],[[-0.5955924391746521],[0.08050791919231415]],[[-0.03219688683748245],[-0.785200834274292]],[[-0.562702476978302],[-0.5668326616287231]],[[-0.49905192852020264],[-0.8144063949584961]],[[-0.9279583692550659],[-1.3348355293273926]],[[-0.8062793016433716],[-0.49648210406303406]],[[-0.5494651198387146],[-0.570967972278595]]],"Bias":0,"Activation":"sigmoid","hiddenLayers":2,"dense":false,"divMulI":2460,"divMulO":1},{"Inputs":[0.08320000022649765,0.006800000090152025,0.006000000052154064,0.10000000149011612,0.09960000216960907,0.09960000216960907,0.031199999153614044,0.012000000104308128,0.00839999970048666,0.07639999687671661,0.053199999034404755,0.04320000112056732,0.06679999828338623,0.06080000102519989,0.05959999933838844],"arrInputWeight":[[-0.7935450673103333],[0.25993862748146057],[0.5464810729026794],[-1.1409307718276978],[-0.9983867406845093],[-1.061702013015747],[0.34291306138038635],[-0.006458727642893791],[0.2723798155784607],[-1.1151397228240967],[-0.7203482389450073],[-0.2596277892589569],[-0.7905020713806152],[-0.34588369727134705],[-0.8072144985198975]],"matrixHiddenWeight":[[[-1.1353925466537476],[-0.4685899019241333]],[[0.2761206328868866],[0.5253572463989258]],[[0.3517521619796753],[0.820551335811615]],[[-1.139086127281189],[-1.406478762626648]],[[-1.3820518255233765],[-1.2555111646652222]],[[-0.98488849401474],[-1.1283079385757446]],[[-0.4455659091472626],[-0.30740639567375183]],[[-0.12351582944393158],[0.21946340799331665]],[[0.4872679114341736],[0.45566239953041077]],[[-0.4437042474746704],[-0.44453442096710205]],[[-0.22408443689346313],[0.058330707252025604]],[[-0.008290421217679977],[-0.683224618434906]],[[-0.39169901609420776],[-1.0001630783081055]],[[-0.5351311564445496],[-0.0719912052154541]],[[-0.13030576705932617],[-0.3214244842529297]]],"Bias":0,"Activation":"sigmoid","hiddenLayers":2,"dense":false,"divMulI":2500,"divMulO":1},{"Inputs":[0.07943548262119293,0.009274193085730076,0.010080644860863686,0.10000000149011612,0.09919355064630508,0.09919355064630508,0.03750000149011612,0.012500000186264515,0.013306451961398125,0.07782258093357086,0.05604838579893112,0.05967741832137108,0.08709677308797836,0.05967741832137108,0.0532258078455925],"arrInputWeight":[[-1.0540380477905273],[0.4823145568370819],[-0.07594595849514008],[-1.6114252805709839],[-1.115822196006775],[-0.9210334420204163],[-0.5407782793045044],[0.10373573005199432],[-0.18080097436904907],[-0.6416130661964417],[-0.3725866675376892],[-1.0765843391418457],[-0.886052668094635],[-1.0190626382827759],[-0.13221533596515656]],"matrixHiddenWeight":[[[-0.7645629644393921],[-0.5245764851570129]],[[0.10226994007825851],[0.018345069140195847]],[[0.5683920383453369],[0.5396860837936401]],[[-0.9759725332260132],[-0.936481237411499]],[[-0.9415289759635925],[-1.508156657218933]],[[-0.8994767069816589],[-1.2228502035140991]],[[-0.6014067530632019],[0.1609448343515396]],[[0.5132203698158264],[0.6585508584976196]],[[0.0738735944032669],[0.4484069049358368]],[[-0.49174606800079346],[-1.0253779888153076]],[[-0.7949883341789246],[-0.4289485812187195]],[[-0.4245743751525879],[-0.12976516783237457]],[[-1.112274408340454],[-1.2818410396575928]],[[-0.8444985151290894],[-0.8700350522994995]],[[-0.24055376648902893],[-0.1020941287279129]]],"Bias":0,"Activation":"sigmoid","hiddenLayers":2,"dense":false,"divMulI":2480,"divMulO":1},{"Inputs":[0.10000000149011612,0.09960159659385681,0.09960159659385681,0.023904383182525635,0.011155378073453903,0.007968127727508545,0.0717131495475769,0.021115537732839584,0.01872509904205799,0.07848605513572693,0.052988048642873764,0.02908366546034813,0.06374502182006836,0.05816733092069626,0.05657370388507843],"arrInputWeight":[[-0.9131773710250854],[-1.557079553604126],[-1.09915030002594],[0.2937168478965759],[-0.001436297781765461],[0.28056392073631287],[-0.5472704768180847],[-0.0691622644662857],[0.20736081898212433],[-0.8443095088005066],[-0.11746904253959656],[-0.1792556494474411],[-1.0136860609054565],[-0.5125159025192261],[-0.5624102354049683]],"matrixHiddenWeight":[[[-1.3497135639190674],[-1.0313571691513062]],[[-1.6564226150512695],[-1.1038947105407715]],[[-0.9209914207458496],[-1.0280460119247437]],[[0.20376840233802795],[0.4763339161872864]],[[0.04534323513507843],[0.2493981122970581]],[[0.21756695210933685],[0.7021878361701965]],[[-0.6516925692558289],[-1.1294547319412231]],[[-0.19301018118858337],[-0.12285345792770386]],[[0.6091480851173401],[0.37645044922828674]],[[-0.748623251914978],[-0.6121224164962769]],[[-0.8451448082923889],[-0.4277315139770508]],[[-0.39225131273269653],[0.2770414352416992]],[[-0.34481629729270935],[-0.955062747001648]],[[-0.8847962021827698],[-0.5301467180252075]],[[-0.5874478220939636],[-0.30093157291412354]]],"Bias":0,"Activation":"sigmoid","hiddenLayers":2,"dense":false,"divMulI":2510,"divMulO":1},{"Inputs":[0.10000000149011612,0.10000000149011612,0.10000000149011612,0.09043824672698975,0.005179282743483782,0.005577689036726952,0.09243027865886688,0.06135458126664162,0.06095617637038231,0.09243027865886688,0.07569721341133118,0.07011952251195908,0.087649405002594,0.0494023896753788,0.04621513932943344],"arrInputWeight":[[-1.0228855609893799],[-0.4819883704185486],[-1.3200942277908325],[-1.0125216245651245],[0.15118053555488586],[0.16090309619903564],[-0.799769401550293],[-0.8485297560691833],[-0.5802421569824219],[-1.1315579414367676],[-0.9605135917663574],[-0.01846347004175186],[-0.3596944510936737],[-0.31039923429489136],[-0.5935823321342468]],"matrixHiddenWeight":[[[-1.2931206226348877],[-0.8286455869674683]],[[-1.3661948442459106],[-0.8254051804542542]],[[-1.334136962890625],[-0.7649890780448914]],[[-0.9531927704811096],[-1.131758213043213]],[[0.04797456040978432],[0.09743642807006836]],[[0.3585134744644165],[0.1754051148891449]],[[-0.5317201614379883],[-0.5893805027008057]],[[-0.6595958471298218],[-0.5200958251953125]],[[-0.6717526316642761],[-0.34543269872665405]],[[-0.7719669342041016],[-0.8274487257003784]],[[-0.849696695804596],[-0.7727230191230774]],[[-0.8000732660293579],[-0.5823313593864441]],[[-0.7940453290939331],[-0.783258318901062]],[[0.09720197319984436],[0.13629107177257538]],[[-0.598623514175415],[-0.5258378982543945]]],"Bias":0,"Activation":"sigmoid","hiddenLayers":2,"dense":false,"divMulI":2510,"divMulO":1},{"Inputs":[0.10000000149011612,0.10000000149011612,0.10000000149011612,0.028286851942539215,0.009561752900481224,0.004780876450240612,0.0713147446513176,0.014741036109626293,0.01075697224587202,0.06733068078756332,0.05059760808944702,0.04223107546567917,0.06693226844072342,0.06414342671632767,0.06135458126664162],"arrInputWeight":[[-0.959209144115448],[-0.9840533137321472],[-1.4760807752609253],[0.05716594308614731],[-0.06902468949556351],[-0.042713724076747894],[-0.4778943657875061],[-0.2544822096824646],[0.5129956603050232],[-0.6215264201164246],[-0.17324894666671753],[-0.40799906849861145],[-0.522386908531189],[-1.1217623949050903],[-0.3991096615791321]],"matrixHiddenWeight":[[[-1.4802409410476685],[-0.9873242974281311]],[[-0.8333209156990051],[-1.2630845308303833]],[[-0.9671026468276978],[-1.332537055015564]],[[-0.1363087147474289],[0.12141437828540802]],[[0.5196971893310547],[0.5965323448181152]],[[0.834973931312561],[0.013448425568640232]],[[-0.8423636555671692],[-0.950579047203064]],[[0.29406416416168213],[0.6993941068649292]],[[0.15380150079727173],[0.29792216420173645]],[[-0.7761294841766357],[-0.49889689683914185]],[[-0.49790719151496887],[-0.2726895809173584]],[[-0.11319620907306671],[0.06928139179944992]],[[-0.8471194505691528],[-0.7714167833328247]],[[-0.7118861079216003],[-0.9247056841850281]],[[-0.2543925344944],[-0.24808958172798157]]],"Bias":0,"Activation":"sigmoid","hiddenLayers":2,"dense":false,"divMulI":2510,"divMulO":1}]